-2.324646678198989957e-01,1.380673603236067803e-01,-4.490714897423607188e-01,3.614545008281526139e-01,-2.041091653077892198e-01,-2.967527095018724359e-01,-1.197511142747815782e-01,-1.585001791993811138e-01,3.437719549129365504e-01,-1.153050735229670803e-01,-4.199082419823884638e-01,2.949081280628298996e-01,2.523373841194286871e-01,-1.974940746890807841e-01,2.892629532482703381e-01,-1.193422222475401945e-01,-3.239835336687147405e-01,-2.368669129347604763e-01,-3.831553689630443627e-01,-3.441797955466643910e-01,2.598679167665841616e-01,1.165522109543946916e-01,6.834529248942583513e-02,-5.362459911668143731e-02,-1.462332329814964582e-01,1.468729737050969153e-01,-8.949347668572218278e-03,-4.000646173572483533e-01,-3.250641489811322837e-01,-3.217325791171835037e-01,-4.498159680500309343e-01,-1.207956998270244692e-01,-2.936832903914357029e-01,4.119136587772832814e-02,-6.945585094353871718e-03,4.483356226029492353e-01,3.458520940896230300e-01,-1.328169395533453090e-01,1.820673329892685266e-01,1.983560698825687085e-01,3.237872876169684000e-01,2.179914343038759916e-01,1.549306665184119747e-01,-3.049317886620702689e-01,4.655679716632029619e-01,6.998765925002804755e-02,5.515804444606769996e-02,-1.364969885918137227e-01,-4.708918423700295119e-01,-1.739569693931362626e-01,-1.693951671200807363e-01,2.486017357624442647e-01,-2.330934550632289826e-01,-1.201997290458333041e-02,-1.775171150164522316e-01,3.140282108962773044e-01,8.154702911747531424e-02,-9.105872993217027644e-02,-1.294626107832080042e-01,4.504827282057536353e-01,4.714844228234983392e-01,-2.302379270220216712e-01,8.166006770688020999e-02,-4.470740320706258208e-02,1.652695197165502186e-02,7.140286243635632357e-02,3.375762337796441859e-01,-3.847441527713786891e-01,1.159482829939398052e-01,1.394659204606068514e-01,-3.326042181385925889e-01,1.838210025180266882e-01,-1.800759007488542812e-02,-4.888166654864402050e-01,-2.739434093937048731e-01,-1.210113045834406570e-01,2.816687673476296339e-01,1.526991651002676809e-01,-3.310286717177955973e-01,3.560690041638924774e-01,-3.876214753262228196e-01,-2.131826059432699941e-02,-1.998361772435278683e-01,-3.473014779637011856e-02,4.035046691627828808e-01,-3.244618913141160133e-01,9.033324768895259482e-02,-2.420218592905560573e-01,4.018563129348309837e-01,9.345478652191652191e-02,-3.885198202647130450e-01,1.827104363032163448e-01,-1.128904416447862186e-01,-4.738643958473335860e-01,3.519134758884921999e-01,-2.689802852830401880e-01,2.165977868889851776e-01,-4.709673930873384262e-01,-9.706188432276205424e-02,1.992664803719937927e-01,2.237665105048277925e-01,2.575320976727822342e-01,-2.366680761293757929e-01,-4.018940255907105796e-01,-1.974648384249468591e-01,6.651394914056101004e-02,-4.845353931692606420e-01,3.012631779320221193e-01,1.492306277442251028e-01,4.703270840341716719e-01,9.262528088840614460e-02,2.280786878095548142e-01,-5.039350464861672707e-01,2.734867314505274871e-01,8.016184136930296078e-03,-2.240715205549148603e-01,-3.646104966972296690e-01,2.891949373310588878e-01,-2.386426034238031679e-01,-8.457034022876742940e-02,8.485664062671674501e-02,1.600199035194519726e-01,4.415215554056474700e-01,-1.818728101030233912e-01,-9.201682606743152859e-02,3.213757903360311419e-01,4.713164379549953376e-01,-1.532546309820853603e-01,4.170843395403791010e-01,-1.328229136934701848e-01,-1.633291035650383527e-01,-4.123474130608326682e-01,-1.095563420946849831e-01,-3.351545167932279412e-01,7.176600329641688591e-02,-4.917875679519165266e-01,-7.042055578884819089e-02,1.651199681031296773e-01,3.618457848148346478e-01,3.609801025943974451e-01,3.211471075077024229e-01,2.369351754274530153e-01,5.052591475616567684e-02,3.588634452706639805e-03,1.233871143556652950e-01,4.471182766505019113e-02,2.278382912776893698e-01,3.884562751575996731e-01,3.762015729286013327e-02,2.156746500852458892e-01,3.760221778030637951e-01,3.658378105063062047e-01,-5.912249480205094415e-02,-2.621122462520534824e-01,9.956356551212820760e-02,-1.534956201158412803e-01,-4.107471685612140155e-01,3.285000989137527028e-01,3.468272045976656948e-01,2.771224605904399341e-01,-9.171993468401801186e-02,-2.613903794737997832e-01,-1.699975285993775009e-01,3.844408671490003732e-02,-3.757497999755798207e-02,7.860826592530714696e-02,-3.665465665692439756e-02,-3.266544532246490884e-01,-4.794559623957527772e-01,1.556970032097302059e-01,1.386594478470506431e-01,3.634214634970968638e-01,-2.795854094972783921e-01,-3.729219070238912748e-01,-2.174755557525657589e-03,1.979448469087626283e-01,6.208354201284737445e-02,2.276535066655786532e-01,-9.095184522938132288e-02,4.499951006581758284e-01,2.368144578469097428e-01,-3.227078146451843321e-01,1.313035432709105943e-01,3.697953413063912453e-01,-2.014634985622698882e-01,-1.257487892377282847e-02,-2.961058312889917610e-01,-4.648053378342215103e-01,-3.719751839530410775e-01,4.931356681578162315e-01,-3.731445948265885715e-01,-2.282558994281625731e-01,-3.481910680738949382e-01,4.362917637037186380e-01,3.637191879511983417e-01,-4.449882946056488708e-01,-3.725817552577571634e-01,4.924533551070741089e-01,4.436820955470504591e-01,1.504646377608380159e-01,-1.333358869651643797e-01,-2.607779993773214344e-01,-2.440928250793016896e-01,-1.681476715593470672e-01,-2.185581251098752120e-01,-4.707020731326437279e-01,4.438162348218923081e-01,-2.199332808936582118e-01,2.778848082174251166e-01,1.552026802794825855e-01,-5.095093050466223961e-01,-2.488628315887034814e-01,-1.348618469442940671e-01,1.297105509350437169e-01,-1.566782404274128793e-01,-3.940524756014847363e-02,1.189883422213676156e-01,5.225821628809680375e-01,-1.101570490797742774e-01,-3.689565431053944966e-01,-5.979118535603931972e-02,-1.299446516069489022e-01,-2.148809128646816391e-01,-4.778123237033807813e-01,4.533747162014034604e-01,2.886675532016328427e-01,1.798331930893325992e-01,2.902065521854886865e-01,2.393452731298621461e-01,-3.879056096254962505e-01,-2.259948382622784246e-01,-1.834277150075540597e-01,-4.144403985098523147e-01,3.270924812821506822e-01,2.746093589369282273e-01,-2.246153707013000544e-01,-1.925661344723559598e-01,1.550396816337948069e-01,-1.070798096187845494e-01,-4.532428347622523002e-01,-4.187245366886568343e-01,4.351917850336378124e-01,-2.874592004489039121e-02,-2.526651505688525257e-01,2.220704926019577974e-01,1.851861114425905341e-01,1.450631953434666499e-01,2.569400303415463049e-02,-3.839308142998142104e-02,3.906773461982892409e-02,5.331374321226915042e-02,9.096951472054357057e-02,-3.604238030795618442e-01,-4.949128565969689308e-01,-1.649126007866366095e-01,-3.170242414691162858e-01,2.739613796149550917e-01,-9.428790869226816307e-02,3.424101154089288501e-01,4.484499158759090442e-01,-4.582747761705833339e-02,-4.088577760976983000e-01,1.133680550241849133e-01,-4.140772504747352589e-01,-4.778391901457942348e-01,-2.047501417503088950e-01,-2.072379509304823897e-01,2.942193807804261430e-01,3.014209170297457163e-01,3.367594882764669562e-01,1.502548138585543258e-01,-2.389986378290299696e-01,-3.257645432151826115e-01,3.932522662510249956e-01,2.936584621390442851e-01,-2.212372342926147151e-01,3.477503138853760278e-02,2.607281999621494789e-02,-2.338667048718524530e-02,-4.443560495432029578e-01,-1.513823961779918181e-01,2.985152964020399424e-01,-3.425498412074748367e-01,3.888089585634081913e-01,-1.476541875231208827e-02,2.834832817360823931e-01,-4.340762575413222857e-01,3.582970127521519776e-01,4.777986909496040879e-01,3.022925755909655621e-02,-3.856162806412984922e-01,1.340937565099800388e-01,-2.983232607397224290e-01,4.426019157169819862e-01,2.219290072227704524e-01,-3.310012730309159767e-01,6.230497718578971444e-02,-7.991197463951155155e-02,-4.513148070173957360e-01,-2.548608302851297913e-01,-3.654047078203410681e-01,-5.647959664002350638e-02,-8.354447911947680827e-02,3.755363569297523463e-01,-1.832542872134016176e-01,2.418920441493737084e-01,-5.068604733519187500e-01,6.802294511311378356e-02,-2.068887764332731083e-01,-3.565373260601715777e-01,1.284071477134700601e-01,-2.859961670118049692e-01,-3.799613677362558284e-01,-2.570242819471996176e-01,2.850174574037844244e-01,-1.316892532710497721e-01,8.987002396828419615e-02,1.257057966927814519e-01,1.112751617520681136e-01,-6.717789803124886439e-02,-2.844231896989053987e-01,1.730747629088857098e-01,2.503492659566164957e-01,2.874986257986162363e-01,2.728724043887942874e-01,-5.718582500270918273e-02,3.834676015510041225e-01,-7.169411123239224914e-02,1.685860871856306176e-01,1.029891379126004480e-01,4.198676460270282518e-01,-2.569932071082253744e-01,-3.709946340379137730e-01,-2.754253344165930040e-01,-2.530342474332230585e-01,-1.717707488983322150e-02,-1.405517828917679686e-02,-2.436782198380201547e-01,2.555243213556551152e-01,-2.038900220889024173e-01,3.156295697214994700e-01,-3.238805950175926429e-01,-3.616394002281473896e-01,2.458517105381149426e-01,2.662498273173443623e-03,-2.332826450042365385e-01,1.829496703860731266e-01,4.086733328565881340e-01,2.431304982259814840e-01,-2.276790971885133408e-01,1.476895671927606624e-01,1.739307538295402078e-01,3.088405180468543065e-01,-1.224510446942182196e-01,-4.976635722754001456e-01,1.940113891400725155e-01,-2.872017959151805799e-01,-3.233075547464754895e-01,-4.821556750768202226e-01,5.212413768696014943e-02,-2.451733860086212358e-01,3.351196946399830068e-02,3.786436148084953990e-01,-4.029326462837931611e-01,-2.685068054120059444e-01,-3.042578106033225760e-01,3.855975368597420183e-01,3.685391043327276295e-01,-1.490731412251043164e-01,3.143163527233011068e-01,-7.847296339103705318e-03,1.247774991643174208e-01,-4.045076834155507672e-01,1.531366576647438804e-01,2.205059283814321536e-01,7.063231813497239386e-02,-2.751449789447465433e-01,-4.539511597167374957e-01,-3.390501916423341311e-01,-4.140906927689163575e-01,-2.312684956486484866e-01,-4.590848730568180547e-01,3.679095091568320153e-01,4.350894754626487559e-01,-8.633183966322043046e-02,9.250672510697391382e-02,-3.986256874268906403e-01,-3.837915844470821125e-01,4.026602832245211316e-01,-7.605522543835659122e-02,-2.257089920951359241e-01,9.688971810858522382e-02,-1.022251044535040509e-01,-2.714017497671323415e-03,-2.829476123767954987e-01,4.179455192458211843e-02,-2.922530385831752404e-03,-4.226367013426666347e-02,2.378221798932300679e-01,-3.155474618661565644e-01,-4.573189118772417183e-01,-3.785323548210553068e-03,-1.756409287308480782e-01,3.838151322149463418e-01,1.432404089394888613e-01,3.272799153525535187e-01,3.354382016683081225e-01,4.378528045526349777e-01,1.044713649908813324e-01,-3.010738891426478214e-01,-2.525315458499546861e-01,1.447439096452467489e-01,3.664604341591756048e-02,-5.664475943180220796e-02,1.337503073786419083e-01,-3.710301556522392352e-01,3.070062586281840367e-01,-1.048733541891954668e-01,4.789890623578800244e-01,-1.802893454200815149e-01,3.308792182584378572e-01,-3.596661007601145710e-01,4.744411502659122704e-01,4.661695532727240243e-01,-2.438736808108662307e-02,-4.533260537965763670e-01,-1.490196370705692552e-01,2.069539935915792883e-02,-3.700187485833819623e-01,5.630531964722453736e-02,-3.674041310834103569e-01,-3.243954508737303954e-01,-1.224326194029978221e-01,3.964810373791201603e-01,1.870802831934236243e-01,2.487053085085312309e-01,-2.569529617986054393e-01,4.139897449623861081e-02,2.080679273733649637e-01,1.514134320591631611e-01,-2.413134894162005939e-01,-2.779955212949529186e-01,1.014378477258578160e-01,4.457530123059456617e-01,-2.756324619269683029e-02,3.195875167903872716e-01,1.600641488771214760e-01,5.678411035009625074e-01,4.362001264695779534e-01,3.372476049562850853e-01,-5.307894625243388953e-01,-2.654243363017683155e-01,2.218911584867132303e-01,2.575538661594462680e-02,-4.209720752467961402e-01,4.801961810313451484e-01,-3.819461996218440070e-01,2.999581709507198601e-01,3.230366306939783105e-01,3.073830724860614483e-01,9.077330124111829962e-03,-2.215562617406954538e-01,-3.790635689546198450e-01,3.415105665214160924e-01,3.988424934774938979e-01,1.271658804480042815e-01,-3.644891128552740778e-01,4.778748823512628530e-01,-5.771205827408662503e-02,7.456533717308816422e-02,4.191073600491936335e-01,1.291886556041788037e-01,-1.329997104224900084e-01,1.201343610997455541e-01,2.259648913802719261e-01,-3.833735326050273229e-01,3.746082313729052204e-01,-1.178523922283817860e-01,-1.491309565412488602e-01,-3.507885690609200968e-01,-4.739803903343590696e-01,-3.159897739309173170e-01,-3.244373911905018559e-01,3.279742520611893530e-01,3.017393298142579394e-01,4.471314440841203108e-01,-7.757221133800250301e-02,2.676241636316287198e-01,-1.613915337076062551e-01,4.209555492113902786e-01,-4.665991762815351329e-01,5.306005590190965293e-02,-4.899013069405440124e-01,-7.387861316156899005e-02,2.859494670926031046e-01,1.312336803354766379e-01,-4.507833398706622696e-01,-1.250432760699749651e-02,4.216316467960331302e-04,2.386831082993592090e-01,1.474880621275045933e-01,-2.231529091678020604e-01,2.879101947653263660e-01,-1.330271226174399579e-01,-8.383178534458980702e-02,-7.683554544500056926e-02,5.425455735243938094e-01,2.285344896875027287e-01,9.008063807002210377e-02,9.070365797643796524e-02,2.853505489869874734e-01,-2.116028523177366227e-01,-1.957641466324509805e-01,-4.580414664283949389e-01,2.092835949284121977e-02,-3.711556551424527450e-01,1.530600679525714013e-02,-4.399987923257169253e-01,3.194353968318541792e-01,-3.318400715240682475e-01,4.397491076912928842e-01,-1.078197901704740364e-01,-1.718036974671176276e-01,5.263554765437495481e-02,-2.749448196055546134e-01,2.938371600279421347e-01,-4.808591294968395102e-01,2.623414968283090398e-01,5.475276126927087761e-01,4.686230254323615063e-01,4.815235341996891294e-01,-2.622067724049843007e-01,-5.869651569987655026e-02,-3.916476046614504325e-01,-3.736476471029422375e-01,1.761116757875065275e-01,2.998202583832689228e-01,-4.826369123033598663e-01,-4.315328150397195195e-01,-1.982543896552133311e-01,-1.789702397180595039e-01,-2.523830556699283578e-01,2.831040160478831003e-01,1.316856388716148296e-01,-3.764364091829291992e-01,2.736745307723798676e-02,-6.358485309528563723e-02,3.115882475075415492e-01,-1.860233857301426263e-01,3.519129317293331338e-01,4.264049802589917060e-01,3.893237612130471259e-01,4.192309281310857560e-01,-1.291227501331164429e-01,-2.787232208161257718e-01,4.732587144091707221e-01,1.366368172281923025e-02,4.530183802406329008e-01,-4.845191950578918161e-01,-2.796113682324188193e-02,-3.109529584391103052e-01,-1.911470541681217494e-01,-8.351310774552188343e-02,-1.347282032307880739e-01,5.372822412447784968e-02,2.327710111806031990e-01,-1.661725112170858443e-01,1.173661957056212624e-01,-1.645351362765189391e-03,-3.023758222699167164e-01,3.662156666103359437e-01,-1.492559614779890853e-01,-1.775370420350767531e-01,1.271688236526154203e-01,-3.996132677746078166e-01,-1.008520826994175196e-01,4.373170059407357341e-02,-3.640893297062783307e-01,6.071051558732093456e-02,3.103893747644406176e-01,5.183346077405794755e-02,1.586227361355999066e-01,-1.279718839315763246e-01,4.417314952678091378e-01,3.947343368633512428e-01,-4.444463720792928840e-01,-6.565062213444299022e-02,-1.039905582654284261e-01,2.693785228119963682e-01,2.828829873148516194e-01,4.424164549941129732e-01,-3.423868446767869833e-01,2.957759409008678397e-01,2.061913096985827920e-01,5.771400703890824380e-01,-6.407384858481871004e-02,1.833854286359594410e-02,-1.766509601975017607e-01,-4.279930617085156430e-01,1.304882763253863986e-01,-3.571058999312072824e-01,-1.212671451909157205e-01,1.866338821101170067e-02,2.822892453687641523e-01,-2.152808060815153690e-01,1.466355326397157377e-01,2.665810636706016368e-01,1.539467899088850789e-01,-2.192607480474183246e-01,-2.047810740221492898e-01,-1.195482655907480068e-01,3.935777684699612311e-01,-1.747280995717891139e-01,-3.046063784229565141e-01,-4.459282624428216324e-01,2.690423625221429194e-01,-2.188742929366614132e-01,-4.288867667681646734e-01,-1.699908055771275905e-01,6.340920069331158759e-02,1.982173183417811069e-01,3.833689606807320210e-02,-4.823185467042334640e-01,2.803202914155057401e-01,2.711221680987901256e-02,3.762377807095956261e-01,4.360333578262739485e-01,2.192636223578446064e-01,2.956768996980820366e-02,6.930338536066139865e-02,-4.305602504940190256e-01,-1.604295395640623345e-01,-1.540224850029043024e-01,1.279407126093508318e-01,-2.751388132636422568e-01,-2.127172171349225871e-01,1.573422806046114175e-01,5.127980230457163113e-02,1.315912216716892125e-01,4.032648223457287462e-01,1.079243297322420581e-01,4.636158788329812486e-02,2.264702855970870121e-01,4.882222959760497416e-02,9.003976827788048864e-02,2.464241101690516633e-01,-6.202128405152401713e-02,-3.873138694171740504e-02,-3.443128261954451208e-01,2.343375161288050734e-01,2.867710125229376295e-01,3.705329557368811644e-01,2.982970566853868633e-01,-1.306451455942644613e-01,9.215465753045075023e-03,2.171181444385640869e-01,6.761376552309933397e-02,-5.141448847861855576e-02,3.215410142774881574e-01,-3.151285598504898755e-01,4.941151235208247061e-01,-6.332450390699799481e-02,2.449148157173821339e-01,3.326985318633304267e-01,2.216763875883680235e-01,-2.611616964865549062e-01,-1.907633798679383708e-01,7.935563238077877890e-02,-4.836823294757431890e-01,2.683224251150364004e-01,-1.509588820473513338e-01,2.953287180672562462e-01,-2.489125761709626294e-01,-3.958239516943174580e-02,8.625581655629681321e-02,-6.615192104059528129e-03,-3.885325764708637553e-01,2.980173180794851717e-01,4.122480241777871923e-02,1.408860415949812761e-01,-1.707097253502542211e-01,-3.563153983225907373e-01,-3.638762146780661344e-01,3.064062953162894898e-01,-2.888242760255687602e-01,2.967480114366619418e-02,1.666815581989497808e-01,3.863461819914993378e-01,-3.932997505638531899e-01,-4.031983401985791970e-01,-2.902097093544843687e-01,-3.057855359540742612e-01,-4.959919402101417574e-01,-4.387986980053356079e-01,2.038516725168922905e-01,-7.557831206422720161e-02,1.355767437877572479e-01,1.600940780099554817e-01,-3.204705065082034676e-01,-1.715912064423497918e-01,2.922309477847770398e-01,-7.937751926104430478e-02,9.376692531772112815e-02,-4.091505862309073871e-01,-3.090742402293394919e-01,-2.807858663406054833e-01,8.394812704053193630e-02,4.967331958703195827e-02,9.641890192461360920e-02,2.086374119334100941e-01,-3.812001981142290052e-01,-3.879144264412025533e-01,-5.071093122621226357e-01,1.151328362838383579e-01,2.431763880624930041e-01,-3.829052907600256073e-01,2.236250988592918681e-02,-4.613643221304145059e-02,-3.603712285257938963e-01,-4.595516718541858281e-01,4.162683245617671696e-02,3.277590886292686689e-01,1.972679264319443515e-01,-3.652700333428236523e-01,4.089255417034665108e-01,-3.934492436101381246e-02,-1.661723534489479084e-02,-2.602160177118365003e-01,3.491219797444579664e-01,-2.281052408018893751e-02,-2.625025767039628199e-01,1.627120924045162217e-02,-4.406155265164068413e-01,1.494761483702254125e-02,3.199244578220232782e-01,1.634347033076017372e-03,-2.051641768908027685e-01,2.864551497551882098e-01,2.903461919679224956e-01,3.938611284748740338e-01,-2.804727257805795793e-01,4.959119177083718966e-01,1.913084958452536122e-01,-2.105637724965289670e-01,-3.858285354767717057e-01,-5.712912861615172117e-02,1.595466980562482984e-01,-7.512984407734164816e-02,-4.283247177213673207e-01,4.635118806949432152e-02,1.898176279259956856e-01,-2.714520657075754073e-01,1.651973080183518836e-02,2.169441783365320120e-01,3.323480987380085239e-01,6.881353786535553130e-02,4.564159467572674878e-01,-3.422960473131788084e-01,-1.993335370316238198e-01,1.129137479095623092e-01,-3.714988765142969718e-01,-4.436613186218392735e-01,-2.086020276037448273e-01,-3.326972623873897805e-01,-5.180843522861675043e-02,-2.585363061335248513e-01,-4.342648977936945931e-01,-2.415705333790470755e-01,-4.387810538209914735e-01,4.256617193496889939e-01,-7.686800749135568045e-02,4.424410578181845466e-01,-5.219572301302042305e-01,2.928022226610625944e-01,-4.228665546894683214e-01,1.616574212165070024e-01,-1.002134347606180725e-01,-4.473350377794102495e-01,1.158997852243046772e-01,-4.879139443787050556e-01,-3.006223917553946245e-01,-2.482284526006744152e-01,8.075359936231657487e-02,-3.272782632172854811e-01,5.114616342121427323e-02,-1.787102970205083907e-01,1.414239100899032930e-01,4.628426283583175760e-01,-3.472722029971607172e-01,-3.257322535718606416e-01,3.338394060050975942e-01,2.749374728169322046e-01,-4.877209431129662653e-01,-5.207968520136056073e-02,-4.450473751370523368e-01,-3.350682290265521307e-02,1.777059793664243215e-01,-2.481955412376762315e-01,2.019089709039534331e-01,-9.591177235698408743e-02,3.681632499220387489e-01,-4.826438539650255710e-01,-4.900298597398456413e-01,-1.812373699303568841e-01,-1.104289186387532595e-01,4.510209414253997795e-01,-3.890170456482094918e-02,-1.455358773778856474e-01,-3.468084023536089355e-01,-4.368465477908283212e-01,-4.037571193073566933e-01,-2.867799113155036772e-01,4.934621836668805217e-02,3.123430348172491211e-01,3.144816917366586861e-01,-1.819777486867712457e-01,2.213009561271765679e-01,-1.914785209406492661e-01,-3.886215309470927859e-01,-4.272063604518276381e-01,2.347684760459849973e-01,3.840461366088808726e-01,-7.622441793320457182e-02,-1.879070043974001014e-01,-2.432787294317764470e-01,3.537446437846721858e-01,3.093575522256428092e-03,6.014878751420337823e-03,3.125973815358935870e-02,4.312100567765947412e-01,4.185710597635498575e-01,-5.174450621413059226e-01,-1.780623179593562172e-02,3.349270393512848720e-01,4.068847074170819922e-02,-4.926776082028671566e-01,-1.643077312025275072e-01,4.085647979470202751e-02,-9.427366627613499583e-02,4.670738567921783879e-01,3.946738661273211379e-01,-2.769027006829473114e-01,2.044604067480053633e-01,-2.331906539100553899e-01,1.670983437278722450e-01,-1.853277015603380928e-01,4.465453886785129139e-03,7.563279741347329888e-02,3.001659693479371005e-01,-2.541256075930235503e-01,4.799852591312069872e-01,-1.810116578610919749e-02,6.099501908423049512e-01,-2.159143410028080967e-01,-4.498761907646713909e-01,-6.518663580782295408e-02,-4.193880137468047886e-01,3.273299528564697219e-02,2.955748639668504332e-02,2.047636631318806508e-02,5.554028552571289856e-03,4.718173535517417583e-01,4.739728509794807199e-01,5.460196172029144757e-01,-1.225876204662223745e-01,2.036093333347400169e-01,-1.121357166106608932e-01,-3.258029360058308233e-01,-3.186963670243474489e-01,-1.243569118279011232e-01,-1.079500888093108263e-01,-4.047572228203513145e-01,1.717759208795977266e-01,2.443976680683662001e-02,2.144333488114497643e-01,4.355065162413385149e-01,1.739527161712201841e-01,-5.029918124596626239e-01,2.496032284704765014e-01,-3.207740389502664047e-01,-1.483821591347008750e-01,-4.012830170299219734e-01,-5.729614178172111327e-02,-5.221718505109979036e-01,-3.895246949572782058e-01,4.807911890036977165e-01,3.553793243413188030e-01,-4.415738383418029711e-01,-1.943721678453285695e-01,-3.311930416582620912e-02,-4.815817584782278171e-01,-4.053326615747229744e-01,-4.446753999470503538e-01,2.027584046794134731e-01,-3.206484059326099034e-01,3.825245626791241582e-01,-2.178430787915778821e-01,-2.963809296548858829e-01,3.787829377687618876e-02,-3.954392048661926062e-01,-3.690133468196274413e-01,-2.977572939715535383e-01,2.826809270195186352e-01,-3.452490404269819013e-01,-7.917719936356501509e-02,-1.701818049837209579e-01,-2.884416144504375334e-01,3.918538051664589017e-01,-2.179153829150486110e-01,-3.710767900030973454e-01,4.210216972318069906e-01,1.969442554614951324e-01,4.695621220460152734e-01,-4.236338233680514986e-01,-2.025060027288161091e-01,2.698088987843305087e-01,7.414971519315013970e-02,-1.906791204113062743e-01,1.468018423104797687e-01,3.501981726028506325e-01,6.209311019542568949e-02,-2.505637816741644319e-01,-4.967610667958472503e-01,5.672510308207504709e-02,-1.875240824893643354e-01,3.593258810609014087e-01,3.167090215322995173e-01,3.836997139021172676e-01,-3.076274812546334059e-02,-1.157913916856107006e-01,1.543403273372237761e-01,-4.134001649836860914e-01,-1.440892104202482794e-02,1.460390616847972445e-01,-1.864467148949111031e-01,4.046327570377377114e-01,1.468804125822623929e-01,2.520995909586396522e-01,-4.232801343447042258e-02,-9.158776701544614485e-02,-1.349096622400520161e-02,2.524395575435479100e-01,-2.865128357422230820e-01,3.414459505120376881e-01,2.409926793326671035e-01,1.203957903273804170e-01,2.377513892886719549e-01,-2.117478961120925762e-01,-5.419538564042546830e-02,4.369776587318586758e-01,2.275472843844730808e-01,-5.926952702142986723e-02,-1.540387495426643050e-01,2.135390305040983372e-01,2.674727838781041922e-01,-3.048308343146176047e-01,1.821626697012259100e-01,7.365507598699334857e-02,-2.427104096564794977e-01,4.905063232372305210e-02,-4.602945078603433715e-01,3.897398462872329050e-01,1.530290897956797409e-02,-2.954346894375753374e-01,3.183344833114714612e-01,9.804032344713668745e-02,1.235038467654316074e-01,-4.242106475798175791e-01,-2.274356476024674556e-01,-3.178972845105312306e-01,-4.162883221092094632e-01,-4.485253526731968199e-01,4.152279010515212421e-01,3.249607075037323489e-01,-3.642141573138119037e-01,-5.047849327217853732e-01,-3.333964161859282460e-01,-1.214670187017093950e-01,3.748008668974420754e-01,2.772365755591055803e-01,-3.780505887859673120e-01,-3.775039219478663055e-01,-8.840790717711544122e-02,-7.030763278044543929e-02,-1.286596233038047876e-01,-3.842755084374884778e-01,-4.622753479756600004e-02,2.776861845753861302e-01,-3.284472374626591917e-01,-1.933278099748317602e-01,-3.160048352961937757e-01,-9.257044974242935320e-02,2.618799674533377475e-01,1.087847161052194478e-01,-4.396384629295976287e-01,-1.583828496546811626e-01,5.682979173680709900e-02,4.009320984335625337e-01,-3.867991400018974679e-01,-2.743905560039429092e-01,-4.383178279747994011e-01,1.943338431582805337e-01,2.595108420739770105e-01,2.322943096304152244e-01,-5.185986653205220120e-01,6.021044759058756524e-02,4.848165017386212305e-01,3.674052674969476850e-01,2.310787079275647693e-01,2.041650787893995456e-01,-3.037146213968671682e-01,-4.709215472959034088e-01,5.389214918442894464e-02,-3.290640277202320774e-01,9.620996849964633113e-03,2.921695754025093184e-01,-3.443148869208368934e-01,-3.085004642314984613e-01,-4.285397642204281654e-01,-2.987036788690403677e-01,3.532711303111455980e-01,4.686455257660706586e-01,4.676549037715002077e-01,2.884791889524724873e-01,-3.820020198001632949e-01,2.254441661403117081e-01,4.116485399599056905e-01,4.445517162034322567e-01,-3.283818487015512377e-01,4.253951196063286977e-01,3.147795639934455880e-01,-3.426935937262773901e-01,2.197216898604890389e-01,2.758985329224285590e-02,-5.135670299912987319e-02,-1.292176877294501924e-01,7.949240515067204638e-02,2.310382202308785271e-01,4.044266115250658711e-01,2.128093257176257719e-02,-4.976499430048129669e-01,8.784855072174217738e-02,4.065871655136820140e-01,3.321760519822645197e-01,1.205663543599133219e-01,-2.951890115141506676e-01,3.678738535015252942e-01,4.351458774515744587e-01,-2.492700120898458382e-02,-1.496975704130841245e-01,-2.860416375877485873e-01,3.579861346431390534e-01,-5.029518587062571378e-01,-4.727748078074502924e-01,3.075779717770391608e-01,-4.253598478474879263e-01
9.922092684792985229e-02,5.095169339695825028e-02,4.784520449116980156e-02,2.769485832131804992e-01,-3.349619768214029403e-01,-4.356153607011090806e-02,-1.083731676738929894e-01,-4.482326823142375738e-01,-3.106161531431529954e-01,-6.736016149866815017e-02,-3.684724542788658241e-01,-3.949469467249546173e-01,3.219977709412691902e-01,2.228723742870903080e-01,-2.867742956244363484e-01,-3.788915950050135706e-01,2.641533482488713780e-01,-3.724353443371155037e-01,2.126693137719596338e-01,3.940901600693255125e-01,4.799570793785207790e-01,-3.332881826475214138e-01,1.493346536834106453e-01,3.379699119829910336e-01,4.285498238046662745e-01,-2.380546320599783439e-01,-1.294811573488531264e-01,2.341980131688551348e-01,1.422238420487528243e-01,1.504376185325506654e-01,6.497863866997125037e-02,4.193286272387289904e-01,-9.023089375315537786e-02,4.563270045588879165e-01,-1.048091614308009623e-02,1.767211824887815197e-01,3.064919749344456879e-01,3.801434050810837406e-01,4.766572438177910098e-01,-1.173392634402738444e-01,1.967085320531967441e-01,-3.483876277408333166e-01,-4.308605295077327924e-02,-1.817313891133512660e-01,4.793249003424477489e-02,-2.352502586564057807e-01,-2.438216279769387651e-01,2.769952041404318832e-01,-9.124063956302311262e-02,-5.074171081673440886e-01,-2.609423807858861633e-01,1.762677456602726456e-01,-3.473920823891398779e-01,-1.731947098210826208e-01,-4.524707837100631624e-01,-2.540270625305301455e-01,2.660338219888074840e-01,4.344072124777444976e-01,3.784118111632411852e-01,5.868115316818597882e-02,4.121546133642181031e-01,-4.731735884346499610e-01,-3.698804303596006648e-01,4.242809224071664165e-01,-1.212143081478345152e-01,-1.989969924021252889e-01,-1.051416863748956820e-01,2.082226339957985173e-01,4.333343704007529551e-01,1.781442683080148581e-01,3.360949447942159218e-01,4.027715402385946553e-02,1.154721883180621217e-01,-4.830693980409884736e-01,2.114001478720080318e-01,-4.417081004385302045e-01,4.247142966157559929e-01,-3.712329548839191778e-02,-2.482794364429600498e-01,1.167395838066011965e-01,-1.971505378302110256e-01,2.377963315685967527e-01,4.827169437500954396e-01,-4.689221782330553201e-01,1.439799218030780315e-01,-1.222047274949534384e-01,1.091251440110214549e-01,-9.674922800726297456e-02,-3.261351900495620404e-01,-3.057271693566101511e-01,-1.081576110841865612e-01,2.736372989468821015e-01,-4.690603613156953400e-01,-3.500567870731552955e-01,2.473152371020508056e-01,3.448823523276507430e-01,-1.388092701092462911e-01,3.833032196508792122e-01,3.748139234457714131e-01,-1.323937019189025677e-01,-4.108370277932849035e-01,3.403238494671046999e-01,1.911821771490491984e-02,1.397950440624786683e-01,2.865568177170511044e-01,-1.753518873659650201e-01,1.043460928035400692e-01,-3.543675650806756283e-01,7.829822847552618537e-02,2.233637158326942929e-01,2.711570060971791318e-01,1.612017054840348546e-02,-1.609167517415014126e-01,3.712317252680918389e-01,4.214535681350990992e-01,4.841337048167009272e-01,3.612126521427513337e-01,3.146124965983100596e-02,-1.962703189514659052e-01,1.142804704935076882e-01,3.755753999056813397e-01,-4.595055835046713000e-01,-1.030190324109392375e-01,1.198715850988770759e-01,-8.676979766828143981e-02,2.530151372864855586e-01,2.340176786289572264e-01,1.180034576070979335e-01,-2.272482958143719201e-02,-1.847845130034852790e-01,-2.899278266231347101e-01,4.719570446752586190e-01,7.747498110622379197e-02,3.541874134424757847e-01,1.500486817892164593e-01,-3.605238537017344536e-01,-2.121160763599162224e-01,-1.265864788662661722e-01,4.748490382605539684e-01,1.689067598116626712e-01,1.624783109778865919e-01,1.174859599077631572e-01,-1.612956135233437061e-01,4.614019430455080367e-02,3.338987059514955669e-01,-2.987320377348471889e-01,4.667903327117018386e-01,2.014480147657734255e-01,-2.379945319495128386e-01,-7.239361896430224208e-02,5.328089079938994610e-01,3.448966498053775420e-01,-3.061465616080277230e-01,-2.427837727017061187e-01,3.129112126537139105e-01,1.740172101064713372e-01,1.900473279532870208e-01,-2.099670046702055079e-03,-3.612535361885753638e-01,-2.802344048771424068e-01,-1.351497048187384753e-01,-2.481241873487563532e-01,-1.256091967762706652e-01,2.178336389463490508e-01,2.392570723630975671e-01,3.470723025935864570e-01,-4.569935666488851855e-01,-1.433978677318279438e-01,1.722287185061803783e-01,-1.741143861804391457e-01,1.734666578483293475e-01,-2.070393081731222995e-01,1.705393541975791238e-01,1.422270128599962408e-02,-3.548799047897340242e-01,1.078351283598097815e-01,4.277403305415286572e-01,2.260433422011642879e-02,2.499979517121589112e-01,-1.833613202995049984e-01,8.329598641672267267e-02,-2.989460636307251784e-01,2.853570174880800669e-01,3.649263633282266439e-01,-3.331243569769570811e-01,2.029313338214312479e-01,-1.119279701371982128e-02,7.712337955828273139e-02,-4.797189489212405622e-01,-6.751353123002741541e-02,-9.528854755845292401e-02,-1.932179277077331059e-01,9.956926566632613718e-02,5.347137233097123271e-02,-4.242432421195885262e-01,5.561333144064972700e-02,4.268597095597770341e-01,5.825942180700125622e-03,-8.748129168952072099e-02,-2.694523928933927337e-01,2.584007503608636291e-01,-4.401450915835143918e-01,-4.416759657324932364e-01,-2.895898326848487733e-02,-2.480441044493031030e-02,-1.525449501604170810e-01,-4.443230867674654583e-01,-4.180102907858387895e-01,-4.530536097461233813e-02,-2.172795484205109207e-01,-3.988271128071018690e-01,3.685536955090629729e-01,3.922485551615845778e-01,4.989819840875306944e-01,-2.074965405726256207e-03,-3.582623704912290402e-02,-1.555295901812870328e-02,2.202003592436788115e-01,-4.847079915511695591e-01,8.348895268387188096e-02,-3.616084045717565254e-01,-4.398482732572839837e-01,1.732862753487720842e-01,-3.874032579167997481e-01,-1.925410698004293986e-01,3.528273225284868087e-01,-1.851677831918993877e-01,1.519165352390843826e-01,-1.324413947303452188e-01,3.225578408410370024e-01,-1.279866540899368965e-01,3.808193072946477464e-01,1.008430502443531315e-02,4.913398802247700425e-01,-5.831760272733973322e-02,-2.269839478899283169e-01,2.582842149612178950e-01,-6.082853737663004856e-02,-4.706332955232573889e-01,2.331702008433584120e-02,-1.437168861523797081e-01,-4.516677250066421512e-01,1.937762985108560099e-01,-2.916536029783613898e-02,-1.323953001425043075e-01,2.124212731380704100e-01,-3.055638699321900353e-01,5.094556782477881463e-01,3.674056608647379568e-02,-3.099671536218328027e-01,-6.805236212474607971e-02,1.194327600680388790e-01,-2.453441677284184941e-01,3.289275716802957383e-01,1.523453487740610846e-01,3.917104316752896831e-01,3.626779574932523231e-02,4.518680353024958629e-01,1.926859506121568200e-01,2.198988427926461542e-01,-4.035037752175675285e-01,-5.030474575278801597e-01,1.533368342157250819e-01,-4.028317145998475679e-01,-4.466325582014467610e-01,-2.976830976318332045e-01,2.377537814316274256e-01,3.847331378686165149e-01,-2.173533351516550305e-01,-2.946797335492529757e-01,2.431695514332402885e-01,-1.643915771920717583e-01,3.621623121568830483e-01,-2.739038786798936309e-01,-4.353807466260217196e-01,-2.267587849966986036e-01,4.555710351428965965e-01,-1.918240666772909608e-01,-2.768877327863877857e-03,4.272613039367637033e-01,3.410122032242792756e-01,3.262461358904132358e-01,4.808890426101180560e-01,-7.682889368201936686e-02,4.762359578627715639e-01,3.197481144989950397e-01,5.494683991677883766e-02,-1.721377342534932686e-01,3.319334407076283688e-01,1.339151159894107213e-01,-4.221218034729432023e-01,-4.938111918888651863e-01,3.570687743595802321e-01,-5.779392580314542810e-02,-1.231770489588586009e-01,-2.218978462363070392e-01,-9.647097044319370707e-02,2.201335550606910996e-01,1.154358060685392456e-01,-3.461092029977062001e-01,3.465531064125431659e-01,-2.946366726588028895e-01,4.730783203147999050e-01,3.188677420400702345e-01,4.223392881926953391e-01,-4.110140268411494047e-02,4.577550982583192818e-01,3.033166425374708708e-01,-2.080030719209205112e-02,4.941681995013268436e-01,4.416404349527966455e-02,-2.027980416339126291e-01,-4.445124340747922884e-03,-1.213432225436742590e-02,1.855205792576268553e-01,-5.338797824768539563e-02,4.757023510022924673e-01,4.948556627045364725e-02,3.824749209183266885e-01,-3.113628463103343749e-02,4.183185642602180176e-01,-1.224603961328932095e-01,-3.977605999004410475e-02,-1.217345386812273417e-01,-2.130828713204680966e-02,4.552606055505376559e-01,-2.576956145910362928e-01,-3.909935864053787347e-01,-1.864544339674701068e-01,2.064362364475450795e-01,2.861792998420972234e-01,-1.422612985335138837e-02,-9.373147862737901681e-02,-1.581785929993041045e-02,-3.613991080891335583e-01,1.655945998986588785e-01,-4.897841747074322960e-01,1.341916641541626154e-01,-4.298082117288035131e-03,1.455699065105407197e-01,3.212010615107065425e-01,-4.247623914978059245e-01,-4.937323830020626247e-01,2.571191208636580683e-01,-9.703260783670345641e-03,6.553445603461818814e-02,-3.369844555608990655e-01,1.686715778238219998e-01,-3.930558868127469879e-03,-7.252004170277868977e-02,-1.131149784728167768e-01,-6.747876076185164995e-02,2.139434239882615774e-01,3.030578560386628095e-01,-4.016052228816122671e-01,3.928362258539665475e-01,-4.924680661446707020e-01,-6.465536798831586843e-03,8.310906525650078869e-03,-2.656302663036030909e-01,-1.293597968483204130e-01,2.464693693604873281e-01,3.042473419052945660e-01,2.065056820449766017e-01,-1.218125831624103789e-01,-2.803163327720437636e-01,-2.173539226658145196e-01,2.245915551278456768e-01,2.286445699163349443e-01,3.069336489391560896e-01,-4.867822387052411770e-01,-5.957417185521126507e-02,3.744021255342273036e-01,1.040960138322139794e-01,1.273755962642483530e-01,1.953960395041617060e-01,-3.585074854238998188e-01,-3.724651824613150475e-01,-4.564267363766925656e-01,2.452399258808156401e-01,-4.180561447150109022e-01,3.331472843358038172e-01,5.093631266301795746e-01,1.450891688946148728e-01,-3.965800062917174823e-02,-4.455090799744589325e-01,3.595251282813259897e-01,-6.642030491033211470e-02,-3.673446246073176491e-01,-1.873592946281834315e-01,4.628151282825053447e-02,-2.303786717731570385e-02,-2.273624378633641308e-01,-2.222181454398584610e-01,-3.712553261991260456e-01,-7.390915542494233548e-02,-1.391347251333638901e-01,-1.273550521487132048e-01,-1.060121924639612599e-02,-4.077120814693919737e-01,3.026404731910306567e-02,3.679180849819373850e-02,6.413088813684067468e-02,1.039215502403504077e-01,8.229702049803641617e-02,-3.019371019418273239e-01,-4.532050902954589677e-01,-5.439041299122010509e-02,-1.935801845963448509e-01,-3.521522503780522562e-01,-2.224610835953386712e-01,4.802151823277772680e-01,7.005748891870824946e-02,1.677798770745053958e-01,-3.582864640911251342e-01,-4.476904694325534173e-02,-2.649214808877614069e-01,-3.523019719102191138e-02,-3.764362165262577498e-01,2.432461206888621719e-01,1.476646415331052398e-01,2.945397195569838811e-01,1.266332156887635951e-01,2.694180092386662673e-01,1.655173040854795719e-01,-3.336474260094359212e-01,1.144025919571184380e-01,-2.898214154245365437e-01,3.852632857308280756e-01,-8.025872553981618085e-02,3.710747381643437204e-01,2.223535541448244113e-01,-2.524306428304601280e-01,3.611535498253092002e-02,9.399804794375915540e-02,9.938966918035514742e-02,7.446591252519706161e-02,-9.897093647720400789e-02,2.970786340175455426e-02,-4.217221928013674126e-01,7.087886632930773256e-02,-3.452338330135181765e-01,3.134534617519351696e-01,-9.287302964316752202e-03,1.460500977556877800e-01,3.093409044738813507e-01,4.244450415878850968e-01,1.516947204597871857e-01,-3.222064187350957565e-01,1.529903623848892780e-01,5.292570437206801648e-01,1.713447890129265183e-01,1.103323664754927991e-01,-4.178029235558642918e-01,-1.799148642745639348e-01,3.359192219683659331e-01,-1.888700162302353602e-01,-4.003728389205821192e-01,1.718984937877151842e-01,-1.184569574439337247e-01,-2.343144644751851968e-01,-1.045675045473325876e-01,4.128867416253113043e-01,-1.157594868324297310e-01,1.653388221937234503e-01,-2.598478877199233428e-01,-1.106195391157152041e-01,-3.093791981280122894e-01,5.164202606001222495e-01,-3.509281286658093996e-02,3.505944864565946895e-01,-3.081323036127204817e-01,2.660237430950844473e-02,3.356296387079354959e-01,4.317865413023131427e-01,-2.045106486095745746e-01,-4.426696591957869353e-01,-2.762956323433604644e-01,-8.900595642010467046e-02,4.573893403384144407e-01,2.793277049624828257e-01,1.540735165365532400e-01,6.275979256210761914e-02,4.434201495201322250e-03,3.909392701271862669e-01,-3.026416883134667724e-01,4.523074112544185899e-01,2.562728670022469679e-02,4.970573037580088283e-01,-3.103706679466726737e-01,4.963055077601281062e-01,8.372679596544777003e-02,-1.146347625189546721e-01,-6.691345000620671502e-02,-2.863143206137176988e-01,3.277063685217078692e-01,1.644358666349947096e-01,-6.607351676066385189e-03,2.856709498793644220e-01,-3.230556898651214537e-01,-3.278319342862552888e-01,-3.265722020794093461e-01,-3.234732088310117715e-01,1.434123403884176307e-01,4.580736631543045334e-01,3.902738225518158077e-01,2.876067600091946064e-01,2.807440845568032195e-01,-3.755276551212395619e-02,2.607576306614483586e-01,3.948802673003325991e-01,-3.535655170272335446e-01,2.197461824845561296e-01,5.379858589508609290e-01,4.127685026323885675e-01,3.357861275805988921e-01,5.389788267976406561e-02,6.405875985753646529e-02,-4.257257088445065007e-01,-3.016659076392436134e-01,-4.155032868624843334e-01,-2.341222949543388665e-01,-2.019725355281153101e-01,1.732743629646700534e-02,2.258522882142340316e-01,2.654760471612419015e-02,3.117082988156758550e-01,-1.642855141964833232e-01,1.222214667336129351e-01,2.549519625947305745e-01,-4.757984665000377644e-01,2.093433001156999040e-01,-3.773327529695436611e-01,-2.296541431933366573e-01,-1.035833943634670434e-01,-4.269840198523905950e-01,1.416729367649821603e-01,-4.494363044110370742e-02,-2.687031619455362286e-01,-2.016840700794548732e-02,2.066242272686545471e-03,-4.265795218129737054e-01,-3.726962175868676064e-01,1.808387083821742514e-01,-3.329589700841100730e-01,2.781229679083365713e-01,-4.477248190001467676e-01,-2.975715879280904641e-01,-3.672975996473275551e-01,-2.550355200939511541e-02,-7.912015307826394950e-02,1.270415937193086486e-01,1.829351991487856710e-01,-3.896323003653034411e-01,1.086614532668313537e-01,-5.296852215394774743e-02,4.208837066075258315e-01,-4.495813557760257595e-01,4.393248435896806026e-01,-4.173453554511106778e-01,-1.236119994060546345e-01,-3.069447822669981729e-01,2.755626654130416964e-01,3.339983710270182371e-01,3.419885335802568815e-01,3.479534164786433625e-01,-8.011027263005211785e-02,-3.390855903333788723e-01,-4.070602121926435446e-01,-6.071114270436897553e-02,2.940505304763177397e-01,-3.538771071676525271e-01,-4.870396825382669048e-01,-1.594755127665771488e-01,3.563400163092712153e-02,3.970907423411306203e-01,-1.689054536646816262e-01,-3.368004651068660649e-01,-2.757192062563645352e-01,8.135475516601745061e-02,-2.298476879398407002e-01,-2.948778084900162064e-02,1.969344368958508285e-01,-4.890562766210226897e-01,-3.431926421998898746e-01,-2.911043218589092763e-01,1.391293681991108769e-02,-2.761527729838700318e-01,1.629360593035397153e-01,5.198786685142750552e-02,-1.478697991524202948e-01,1.374783929632143187e-01,-1.811422905722240573e-01,2.103080881701290539e-01,3.413246614414200963e-01,-4.700134559894497688e-01,-2.647690195021764059e-01,-1.584192523909205008e-01,2.503243842137909403e-01,2.213065508615083832e-01,5.620970916163028908e-02,-2.442618661376380618e-01,3.869149515387336220e-03,3.748455611000954257e-01,-1.787680215297533792e-01,-3.010341329824962608e-01,-2.379039770796802788e-01,2.658570320235483786e-01,-3.779299594909703575e-01,1.018277449861763190e-01,3.347625756445127831e-01,-3.626270193823564747e-01,-4.063593248395379609e-01,-3.641398185508222807e-01,1.543784707791594490e-01,1.937690458567662144e-01,-4.005935162720421494e-01,3.737387302937208999e-01,-4.656669610815760141e-01,-1.951491062867252435e-01,-1.394574894149733235e-01,-1.080824717631152093e-01,7.217548734469025895e-02,4.227130385318975808e-02,-4.580457674353439756e-01,-4.396796036981504008e-01,2.900700717449133589e-02,3.731485148731092383e-01,2.020337758176624365e-01,-4.900792307385690716e-01,-2.258984722735445927e-01,-5.262213940669125539e-02,-3.464780445565380784e-01,-2.455313514414082243e-01,1.352654367957931980e-01,4.180127915478882294e-01,-1.083232065185606580e-01,-2.663865673357496688e-01,-3.273246508812789890e-01,1.888210794436009365e-01,-1.137548943067115403e-01,-2.036353256427354819e-01,-3.157452812879217863e-01,4.468974544939295357e-01,-3.163235605640443704e-01,-2.946109515931191747e-01,1.704378815757411347e-01,-1.221617139509982436e-01,-1.806403332626759228e-01,-2.350056039298008270e-01,4.866121481928242787e-01,2.021470009896508546e-01,1.819477319055693987e-01,-8.281422993320089465e-02,-3.441861319822618892e-01,-4.660033238714586523e-01,-1.976451399367625261e-01,-3.409502338169241309e-01,1.042525016342260857e-01,2.937298530521018636e-01,-2.732595249981942809e-01,-5.955993379414122046e-02,5.114373908121377932e-01,4.123187552625940389e-01,-2.857758501878531754e-01,-1.608967617454170052e-01,2.399416307971900114e-02,1.737659399621460099e-01,8.654197638755967148e-02,-4.024085802578166726e-01,-1.480466707113545222e-01,-3.777439017325028847e-01,-2.384900798218921314e-01,-2.065235363601588547e-01,4.216575296543847440e-01,-3.593848459635754500e-01,2.469331831687649470e-01,1.854226971451980732e-01,3.593338870381622696e-01,2.574053521774247733e-01,5.421988867521915917e-02,-3.347843417068897126e-02,1.223094636207771591e-01,1.906210358491192414e-01,-1.588324067933069295e-01,-1.349470637166513276e-01,-3.450040922710527203e-01,3.198858212513716048e-01,-1.424386303186522540e-01,-3.369401128183205363e-01,-2.560607204965439365e-01,9.899711905082970997e-02,2.107993508077939671e-01,-1.528725208568353644e-01,-3.179438827997511097e-01,-3.065098671227025479e-02,4.069406272635791022e-01,1.884003894945191493e-01,-5.490954405354939866e-02,6.763668820646788482e-02,1.440772506993570345e-01,-4.556130042683837478e-01,-4.266300078407797569e-01,1.490453454714806836e-01,-2.094429145610398613e-01,-3.436204549616858617e-01,2.430436496012527980e-01,1.818813177788747640e-02,4.257778251480057730e-01,-2.754799829849465323e-02,2.370059243258181014e-01,-3.087018702458354524e-01,-4.323583075907488915e-01,-1.413568260857721304e-01,3.640232255067094580e-01,7.638403623740520898e-02,-1.778903054480001356e-01,3.147072489853917077e-01,3.711974781530616996e-01,-1.869908316762580736e-01,3.922730716452562105e-01,-2.694315905597366445e-01,-1.860808760481057755e-01,3.867074151814099414e-01,1.933912876990826202e-01,7.269195155510821404e-02,-5.096061982991826333e-01,-1.145021216545218656e-01,2.389992890069594705e-04,8.948345618532718704e-02,-1.364222265393623401e-01,2.636087586403211280e-01,2.180197896297408622e-01,1.645539293927509583e-01,-2.475631449718090626e-01,1.865309842407397167e-01,-9.721320686760091812e-02,-1.889037512487777570e-02,-4.204750288962371130e-01,-3.734854010625961451e-01,-2.229909261654547947e-01,-2.712255457094083777e-01,-6.829788575365255965e-02,-4.222091749192301013e-01,3.217302396132188935e-01,4.904285815196678944e-01,2.743690002385195670e-01,-3.745321410230527670e-01,1.516069431391597333e-01,-1.209969853466724421e-01,-1.514682941750566392e-01,-2.751279006251444170e-01,-8.364841053528468406e-02,2.392291998514712859e-01,-4.927496031596221848e-01,2.129520943347152639e-01,-1.575946643436643702e-01,3.498207085893688673e-01,2.805600895247878923e-01,3.168642645626273402e-01,4.360721323267590654e-01,1.203922981967935762e-01,2.701537983434688650e-01,7.452281612209898931e-02,3.075941412520062923e-01,-5.997220488767584373e-02,-1.879461935265140382e-01,-4.150763234031148441e-01,3.860996443915578613e-01,3.149620839900382219e-01,-1.348056068831272880e-01,-4.486793385934806921e-01,2.687001877227264066e-02,2.965196844219575856e-01,3.889203323778641086e-01,4.174802918365377313e-01,-4.209721661921453917e-01,-8.878295794820778575e-02,3.555726347172560309e-01,-2.252704112318020813e-01,-1.986102938600428358e-01,-9.403776972565255909e-02,-9.336993962955852239e-03,3.661098903875338317e-01,-5.254878985089986299e-02,-1.566417223341526888e-01,1.683884989754208528e-01,1.099890585861022785e-01,-3.749934962098042113e-01,-3.423909399277400567e-01,2.198018316710686343e-02,-5.843754246972238109e-02,4.220516275028825259e-02,-3.920395062406461517e-01,-4.955176853546203880e-02,2.956947851486699808e-01,-2.936482562332342131e-02,-4.654272242165577445e-01,3.778945238079382540e-01,4.229548826464770706e-01,-4.498060675636445516e-01,-3.081651602494096531e-01,3.206890875794038975e-01,-6.049550226387195168e-02,-1.568638245025854860e-01,-2.874581434531638391e-01,2.633056122264058607e-01,-3.249955756578076782e-01,3.454390545739679519e-01,2.098090942482625232e-01,-1.568922349314069986e-01,-1.935202036874932030e-01,1.880433543724311096e-01,-6.769292597133561018e-02,2.578933378202796778e-01,1.471047377284815105e-01,-3.366379496053301668e-01,2.226807587777947794e-01,-1.669615180743813931e-01,-2.996399704964985422e-01,1.562977730691354206e-01,-2.666965192522907091e-01,-5.252706514699171519e-02,1.628880314620297642e-01,4.848109365384780656e-01,4.814247717435957141e-01,6.068850141981966262e-01,5.492627472892247509e-01,4.855624986037260227e-01,-2.491222084907232515e-01,-3.429695905082286167e-01,3.350322594005825105e-01,-2.351168477527740969e-02,-3.038658268294741061e-01,8.576198535959733693e-02,-1.530517899407770888e-01,-4.175509884990111220e-01,2.291989717710747332e-01,-4.163921120577887547e-01,6.898655053017999084e-02,6.180634666823992679e-02,1.057358131974151932e-01,-2.004807593376593533e-01,-3.340332605202733091e-02,4.164977764387601811e-01,-3.416057020364815511e-01,-1.882506600245797967e-01,-3.378010301712546237e-01,-4.728908855623099039e-01,-4.714385509570433452e-01,-4.401588353469598203e-01,-2.571384661611400002e-01,-3.652727182123230443e-01,2.132302685864933267e-01,-8.697940146417346141e-02,8.324620179968329758e-02,-4.570715030026731851e-01,-1.444167561647763109e-01,-3.440409944883699445e-01,-4.470234629479629684e-01,2.327174826929607754e-01,-3.289963939349193622e-01,4.299647457539891304e-01,-2.450898437256452955e-01,-4.040493127969144171e-01,-2.835274028094483811e-01,-4.738032597096873411e-01,3.922329941994776581e-01,1.294773895193176705e-01,-3.132478484142358077e-01,3.859473377115373305e-01,-3.778085860019490538e-01,-3.761268537243708798e-01,4.472511216440205883e-01,-4.426419408497710428e-01,4.234421617316768138e-01,3.692028669509044292e-01,-1.103570038681998683e-01,-4.530676627386105437e-01,9.241793185284849846e-03,1.181858973958710146e-01,4.596205091307159485e-01,-2.784118206464546996e-01,-1.495512204199754003e-01,-1.351822148316263461e-01,2.167434809161972731e-01,2.749396174911334367e-01,-3.423788691989981259e-01,-3.446341244312073337e-01,2.565111884292721189e-01,2.433753248978582154e-02,-4.270069260995191240e-01,-2.034238146340713038e-01,2.351869542275315250e-01,2.908865165891039717e-01,1.664096109427941339e-01,-2.273440086073071076e-01,3.802289563428272179e-01,1.199989288497494040e-02,1.104173077418233867e-01,3.781740677044918009e-01,4.337123721597156978e-01,-1.928993968052897523e-01,-2.276627912016374600e-01,-7.150771017481272196e-02,-3.929576040636848511e-01,-3.652093963741409599e-01,3.401199640712256889e-01,-1.758019998424191835e-03,2.217905301350978076e-02,-3.554976352915418247e-01,-1.674310969211645073e-01,2.031544366082321529e-01,-1.840810754721319276e-01,1.348712637341041021e-01,4.192636109228518593e-01,-1.126373905688523580e-01,-2.262231559676927684e-01,1.095837842151071301e-02,1.041264474177364535e-01,3.955790884544119757e-01,-1.630775811063313596e-01,-3.532123027270717697e-01,2.640814092937940338e-01,-4.481833645105067765e-01,1.385052697757050144e-01,2.603693962155627650e-01,-3.472076421309961969e-01,1.668978612664884231e-01,3.920411014114983939e-01,-3.292963159554315733e-01,1.405499607974376453e-01,2.526884600820737958e-01,-2.423122977075974627e-01,3.816249110150970458e-01,-3.811692322483625772e-01,3.023713256297472229e-01,2.529245222707129370e-01,3.325157560372293819e-01,-2.938467394272314404e-01,-2.135540014110199336e-01,3.073005210946302412e-01,2.625948293130260236e-01,-1.325654886020837531e-01,-2.550429051545149428e-01,2.348151126917318310e-01,-3.338706055878008089e-02,-3.273936026469192462e-01,-3.885537721345108664e-01,9.816378546812593031e-02,-1.328950587153970575e-01,-1.390109801657123667e-01,-1.339262780761677207e-01,4.955349239284962404e-01,5.756407050466729597e-02,-4.056718217929025094e-01,-2.349794081337028551e-01,1.594818092475912275e-01,4.309370057116261865e-01,-1.089505766181068785e-01,7.030022578498369701e-02,-2.686879588463609303e-01,-1.702366359808873963e-01,2.759662407161281306e-01,1.621807938387301029e-01,2.420425702559105274e-01,3.859127939459122136e-01,-1.545498928740929589e-01,1.039785446110093325e-01,-2.643552653973637590e-01,1.871435888828170691e-01,-1.333399264510749804e-01,3.553195210179437291e-01,-3.367103180950778429e-01,4.583781204902787620e-01,2.524904501609386842e-01,-3.690247605863901104e-01,-4.078992696197542012e-01,2.476466235762160920e-02,3.835796924361201121e-01,3.563918605577709453e-01,-1.264680959571481411e-01,6.996018950341460763e-02,-6.715016530573528208e-02,-1.362663144200271237e-01,-8.265008131177384310e-02,2.069942649611806185e-01,3.311380435762592001e-01,-2.095600879188322940e-01,3.552233642881003628e-01,3.507661274355911019e-01,-3.234563614907642881e-01,-3.933517433993325429e-01,-2.867981262659721753e-01,-1.665976980975411581e-01,9.866516241686860283e-03,2.150354528143004207e-01,2.490083432342070635e-01,-2.915822621073313470e-01,-4.300130218877826205e-01,2.999242193978426396e-01,3.295456279277949041e-01,-1.288305864114703825e-01,3.342387591977568628e-01,-3.561304782139521063e-01,1.131508258431390551e-01,2.771891068932557101e-01,-3.397461979496040341e-01,1.793334381428310087e-01,-3.727980270647496264e-01,2.320721739413927065e-01,7.054797376677759968e-02,-4.451602889926681295e-01,1.567481291172701796e-01,-1.681886612225312883e-01,-3.687164724788500880e-01,-3.241714200965211123e-01,-4.087849586507850685e-01,2.170958020621240603e-01,-2.570639291447204475e-02,-1.354625774730488369e-02,-2.209469945268600632e-01,-9.123999872023352831e-02,1.271318982460033498e-01,-1.733664305305374076e-01,5.562288551872327652e-02,-3.351630714277607503e-01,4.637754689560120991e-02,4.521584605835806125e-01,-4.306007298527617794e-02,-3.726464229475439094e-01,2.894148731813628861e-01,4.639475211516271846e-01,4.616435823326947019e-01,-1.992015010456014978e-01,-4.515064268986814233e-01,3.378046349417784810e-01,1.866653492790315561e-01,3.675201236846306618e-02,2.167201216539591802e-01,4.557746059536416650e-01,3.022251170520055541e-01,1.446484648679094084e-02,-8.834504390372535654e-02,-2.221497665774895824e-01,-3.190564930370459740e-01,4.104937462174083895e-02,-3.910604709329026929e-01,-3.779941895901145488e-01,1.674719060950924931e-01,3.122731102828189553e-01,2.457267234917949739e-01,-2.289039972144851776e-01,3.624210355551508167e-01,1.933617740357233827e-01,-3.125858612486214771e-01
2.725797380636531542e-01,3.465430984471448150e-01,2.710931636393299794e-03,4.463750780291162457e-01,1.765307171784699647e-01,2.070356865891019582e-02,2.055005711669159740e-01,3.876071560980652864e-01,2.345817436778906417e-01,-4.494849677879939609e-01,8.691506174040265764e-02,-1.239762282484400263e-01,9.018048282400607796e-02,-4.326552059700004560e-01,-9.051103101288981989e-03,-3.783640078589017852e-01,8.447755297939214814e-02,-2.250415647655832144e-02,1.144029338333400897e-01,-3.518569118408914620e-01,-5.208423333265020938e-01,2.205657649877341420e-01,-4.056338049635975218e-01,1.376467035318693355e-01,-3.056269991768512662e-01,-5.565468503047147492e-02,2.633529874091791179e-01,-3.359780478555585148e-01,-1.751764749586787739e-01,-3.383938390859081435e-01,-3.846463661845715420e-01,-2.307969176734426253e-01,-1.984763502131300372e-01,9.326147877831260369e-02,-4.661177431023212914e-01,-1.204236640656658058e-01,-5.398684816176266971e-02,-2.542975573928973887e-01,1.995377761215453016e-01,4.651233352180842578e-02,-4.295526185239469386e-01,-1.132709596961063436e-01,3.423949695538701637e-03,-3.322857207827161208e-01,-3.879811399037588204e-01,-2.159875828783701934e-01,-2.838671224641841073e-01,-4.737713081032535190e-01,1.121540583668388380e-01,-8.893259296845579254e-02,-1.935757312288708121e-01,-4.092990155360608923e-02,2.697898700724043475e-01,3.297700789383798958e-01,-4.349619286222474179e-01,-2.128932909025526010e-01,-3.399470483342416638e-01,-3.761131487800679629e-01,-5.252564033795080745e-01,1.134409653487841313e-01,3.884367086497894084e-01,3.694111515790961531e-01,7.462512275510518878e-02,1.980328837678230758e-01,-2.538536830074787365e-01,-1.002188256843668385e-01,-5.065896456303959489e-02,1.859789817943914569e-01,-1.138504078582007056e-01,6.398493138131584879e-02,1.504577638900993740e-02,-4.345120509605910897e-01,3.307536810632176194e-01,-2.007678451578703838e-02,4.374029765082514953e-01,4.124587772551345788e-01,4.268933540148181494e-01,6.649237073036784462e-02,-4.640904980739143926e-01,5.964366342518841180e-02,-9.096717037699278419e-02,-4.525027649254920736e-01,4.235002284873585765e-01,-1.634791186846659694e-01,-1.958870555480175524e-01,1.381208552454345762e-01,2.630776419589277854e-03,-5.242173781705669958e-03,-1.793655760208781313e-01,-1.021109517070454553e-01,-2.713662246921016291e-02,-7.353604038612553129e-02,3.232227987975105216e-02,-8.407355307851812221e-04,2.813535292261096221e-01,-2.336504645166711802e-01,-1.550238395722377538e-01,-1.001696628377930914e-01,3.073975884413544524e-01,-2.350838037980139406e-02,-3.378064587251369266e-01,-1.595418346144357458e-01,1.939790375102449227e-01,6.787581257092784037e-02,1.004845522280256864e-01,3.141204401395945034e-01,-1.707769764443141380e-01,3.704659171223920189e-01,-2.114807171782557282e-01,-4.506007341276546119e-01,-6.930932286290376887e-02,4.534072042925733070e-01,8.804804214235809057e-02,-2.517207603867709434e-02,4.389434530374649590e-01,3.826052522201353057e-01,7.780543056875930188e-03,-2.655205209710655434e-01,1.698207426049968272e-01,-1.560007154434418231e-01,-1.460545216992628625e-01,3.965181870613323500e-01,-3.273851486806404476e-01,4.270405777495732136e-01,-4.049050462618606350e-01,3.994361304390306455e-01,-2.781003999546434804e-02,1.348118006444204153e-01,3.208528093041865814e-01,-2.028548437158145812e-01,3.120081410544389700e-01,-3.389661655351311476e-01,1.696395108372087956e-01,1.334938811266872527e-01,2.193270122014496504e-01,-1.715997110690012958e-04,-4.701110044981315905e-01,3.154999745771567832e-01,4.286752407615146976e-01,2.319917742896829629e-02,2.045421814964332452e-01,-2.354877770383927982e-01,3.337252804966769903e-01,-3.235522695557923045e-01,3.973020617680983468e-01,2.155969923354436046e-01,3.330883040197784029e-01,-2.220693662283016734e-01,3.212559829879307327e-01,1.439524759949000476e-01,-1.632201508584835425e-01,-2.737096900023720525e-01,2.251093952160819478e-01,-4.643744885621051699e-01,-1.571053538659618332e-01,-2.291896044585499045e-02,9.551753990090955382e-02,3.114058777770301600e-01,1.594737745564057951e-01,1.502043146433217624e-01,-1.901597385734657419e-01,2.996485454928317360e-02,-2.113542024719030354e-01,4.986356760204319616e-01,-4.196545821696957557e-01,3.804305160551935683e-01,4.284475543892322102e-01,-4.825856338597794282e-01,2.815888501767181973e-01,5.506148495570328122e-02,-8.829604599959245403e-02,1.154041004098370071e-01,-1.475383112962121990e-01,-4.394099364471189539e-01,1.036140135025626352e-01,8.939882786045386109e-02,-2.301798459495256188e-01,3.408535332511638538e-01,-4.322507275280246808e-01,-2.019218440515006124e-02,-2.474586691134693650e-01,4.455162400454560495e-02,1.468762701605849375e-01,4.374235906453104866e-02,9.967707515129778373e-02,1.376112159395248280e-01,8.020571233480186524e-02,4.658335462780264224e-01,-4.840278513233025048e-01,4.075862892254870640e-01,-3.629807610730513834e-01,4.200257724107185342e-01,-1.841474015695445110e-01,-3.075305343483119014e-01,-1.425133926514057514e-01,1.518395415064086318e-01,2.616930629675924269e-01,4.198195544898797316e-01,-5.889168648672966216e-02,-1.669110441117375998e-01,-6.558738070407371494e-03,5.847682129855780175e-02,-3.525101693831628191e-01,1.256356366553008364e-01,-1.111508932098345531e-01,3.782386058492174796e-01,3.552145531595699013e-01,-2.071519964374071154e-01,4.359902168163355407e-01,5.726052563303352452e-03,5.133914945082782566e-01,4.741764298613992956e-01,3.377335142291363890e-01,2.178720039128317076e-01,-6.575433411457301536e-02,-2.907152493786746561e-01,-2.098761520526537527e-02,-1.060679314538862661e-01,4.305619752384249460e-02,-4.677355848082099254e-01,-3.935666879747359848e-01,2.538346683204640297e-01,2.198995362704162515e-01,-7.328117828819073754e-02,1.425420021344816213e-01,-2.028782993512025234e-01,1.946533210444179873e-01,-4.459074990777729952e-01,-1.191120376558669758e-01,-7.154074522629084998e-02,3.130402279012172578e-02,-3.607567577625036548e-01,-4.975014559658557517e-02,3.970060694632382980e-01,-3.026804156982746408e-01,2.785216591546706977e-01,2.474996689940377470e-01,-1.811761630405252788e-01,3.830771275121149788e-01,1.506985084183598833e-01,-2.370829031149873645e-01,-4.148856475103120112e-02,4.163823110798423599e-01,-1.344590167618092136e-01,-1.643739127850675774e-01,1.808304069777790235e-01,6.314077706337672957e-02,-4.590694573173167425e-01,2.727812790156561307e-01,3.304093513093187551e-01,9.257159164121120387e-02,1.252488716804535385e-01,8.073267582104448701e-04,2.759194362490799968e-01,1.471549773767381331e-01,-1.164487869616665228e-01,1.404670935896063788e-01,2.926733098223763263e-01,-4.720195233484193731e-02,4.700659158255032777e-01,-3.727780053696994056e-01,-4.103653149960044821e-01,1.486444529900430855e-01,3.667302250336345049e-01,4.169577201845677816e-01,2.123770894616788252e-01,3.801135768047393393e-01,1.791726591442094063e-01,6.786042892488779177e-02,-1.490155068314714115e-01,-3.646628950743404651e-01,-3.469450215404823457e-01,1.198293185991924636e-01,-1.008699139757866514e-01,3.660388639518430409e-01,4.305009337543188597e-01,-1.333127733665942505e-01,-1.740190447655892703e-01,-2.106680673218120914e-01,-1.644750224223950896e-01,9.752901451496839846e-02,-3.764464209578787246e-01,-2.113769858639424348e-01,-1.234013644165145862e-01,2.870913248313836097e-01,3.079352237419553662e-01,5.345702863140127520e-02,-4.749926856601994346e-02,-1.657939357691955162e-01,-1.417823765362881405e-01,-2.199151192000413646e-01,-3.325305882650749223e-01,-6.069394461297056287e-01,1.450290485966608256e-01,-1.254696316367104880e-01,4.916774885341220203e-01,1.570098950850423725e-01,-3.173391191178971948e-01,-1.548113623106788239e-01,-2.938121744286079084e-01,6.688264614633107619e-02,7.492035956815271298e-03,4.713905491948042203e-01,3.089429081489904888e-02,1.935042727790780848e-01,3.433051672217484751e-01,-3.158113322617686070e-01,6.252762740344371128e-02,-4.448396273079895935e-01,-1.150159042279589455e-01,-4.470237618820367964e-01,-3.145177103213359637e-01,-1.658565120570359985e-01,1.880460947560131935e-01,-1.596166220729649532e-01,-2.272402640531007156e-02,9.914976695878065238e-02,3.009574211289126056e-01,3.427310901084805739e-01,-4.910022982793502133e-01,3.069139334209697867e-01,-4.277578912835189318e-01,1.775308188042414304e-01,-8.297043380601011250e-03,-2.122988944885816354e-01,-2.091576438832874751e-01,-3.073550178410157097e-01,-8.597114235837366447e-02,-3.867228875779659542e-02,9.984205469347701145e-02,1.388879545152842468e-02,3.108425407686117303e-01,4.259173390972483264e-01,7.368034590430584674e-02,1.686232877922966833e-01,-2.551829465395015761e-01,6.668305931263457387e-02,4.283811182064640177e-01,6.234537110502656049e-02,5.757088336345445728e-02,-4.501951058558544272e-01,-4.116084780150218725e-01,-1.516965171806446133e-01,2.636735657465676952e-01,2.583173856639934263e-01,-4.496393675648586719e-01,-6.608915718870925216e-02,3.293072070010395480e-01,-3.562533672600815549e-01,-4.557858179834695100e-02,-1.034049343351256256e-01,4.833743842408114721e-01,2.371485038726825478e-01,5.661063741919214465e-02,-3.523986549239142563e-01,1.648391507069409123e-01,-3.853705939943863901e-01,4.966950261449152304e-01,3.832484687314316463e-01,-3.297491188316915567e-01,-2.680749559779349589e-01,1.225936009786652847e-01,-1.851379563231849434e-01,-2.662096434399092160e-01,1.245625837686926002e-01,-3.706854289076734199e-01,3.697200702599601763e-01,-2.212821617356165171e-01,-2.407643468007852616e-01,-3.427135273097538931e-02,4.824977714064198064e-01,1.287362525976348537e-01,1.121667624399536045e-02,-1.985302372887986777e-01,-2.816865688764063624e-01,-2.868428920951117123e-01,3.850086064752882842e-01,4.641099981779043815e-01,-2.251442570945155486e-01,2.529381048922985098e-01,6.189384293560361294e-02,1.754541418100575845e-01,4.968439524878492386e-01,2.808726036398188075e-01,6.524691576073650412e-02,3.163578661179929606e-03,7.457345756041726392e-02,-4.546406868168859639e-01,-4.656007278594446741e-01,-1.894398189120110876e-01,-1.783680171274558968e-01,2.133245671347587802e-01,-8.176047325164369217e-02,1.179299937963789874e-01,-4.535943722892057384e-01,2.875051328598728362e-01,-2.480412747357538250e-01,-2.602595802367957956e-01,3.251991763591361995e-01,9.904266517055912433e-02,3.461625850534768567e-01,3.700798654471231797e-01,-3.057796913276119577e-01,1.993530144719891373e-01,2.904226021373104150e-01,-4.667525094034100652e-01,3.333863185128302375e-01,-1.459626384094518114e-01,-7.628195468330135898e-02,1.048244116788170643e-01,-3.807328838317663999e-01,-3.076479304741899234e-01,-3.357109649170852972e-01,3.153872493995432680e-01,5.089985958687507361e-01,3.605557173116248904e-01,3.816670817250994996e-01,4.723162780327749277e-01,9.830307606758248440e-02,2.842846458359717388e-01,-6.900814896287196798e-02,-1.090732725804329645e-02,-2.191057871819301894e-01,-3.488731950299110984e-01,4.187240292164446931e-01,6.027378711029642705e-02,-4.396097717759600010e-01,4.082683309965591534e-02,1.134108852696946029e-01,6.543011861295280895e-02,-1.580798798348134471e-01,-3.157026618026276821e-01,1.777416598160493078e-01,2.032663426391896067e-01,9.392063852466968343e-02,-3.403375351000919036e-01,-3.941206380748157878e-01,1.037349211393238241e-01,2.170237016745185377e-01,3.888216368349739493e-01,3.278456452439489355e-01,2.646269399780386000e-01,3.204192111561325884e-01,-2.656880388609383359e-01,-1.386427660072373780e-01,4.654242735271756359e-01,4.381979259177614106e-01,-6.807415357467841432e-02,-3.127169266228606026e-01,1.145396664509569090e-01,9.483341184926828704e-02,1.728538136146032800e-01,-2.452751202318151358e-01,5.016772605818726333e-02,-1.132469928111355245e-01,-1.011965425629450382e-01,2.373377834898472982e-01,6.445320649721864026e-02,-3.970936099879536219e-01,4.305353485343421105e-01,-3.072046725370533582e-01,3.090998701515427771e-01,2.584837194489618128e-01,-1.507309373093897453e-01,-3.284364873794554107e-01,2.837073209658929618e-01,-2.470000856303292414e-01,-1.176357824227344945e-01,1.116448050356112359e-01,-3.201105507066138722e-01,5.433406585926305044e-02,-2.466002975840521361e-01,1.461815320248013861e-01,-2.721820437645048330e-01,-3.748838022276902437e-01,-3.550845435804253492e-01,2.157983835826544627e-01,1.761102646782279624e-02,-3.614866401374428051e-01,3.064403302826489428e-01,-1.487398774194404194e-01,1.545532376904913408e-01,-1.559236726009345653e-01,-3.730225921533714822e-02,-1.481433856824900253e-01,-2.951651798151295747e-01,-2.029426069515608277e-01,-3.539757296318241653e-01,-1.354913550716578541e-01,1.064683744389211817e-01,2.711436533723550202e-01,1.919487580934120807e-01,1.465345025475469354e-01,3.848860284910592400e-01,6.294262133934800871e-03,-5.339507168850371466e-02,4.092281743814317196e-01,1.857472613016551422e-01,-1.784597619562520998e-01,-3.504863885584320049e-01,-1.220651270697119539e-01,1.223515992903815852e-01,3.481733456447356351e-02,-8.777927085560338627e-02,-5.001942714740089668e-01,3.738867154350635769e-01,-2.787876134461708677e-01,-3.773836807919964120e-01,2.737710945551486974e-01,-4.130917571002874072e-02,-9.609342865658074273e-02,-3.003483895485371535e-01,-6.737318872291714333e-02,2.620555849231029355e-01,-1.205459967614354311e-01,3.047906863266295896e-01,4.045717538982133710e-01,3.674963745645328794e-01,-1.997497199060417339e-01,2.101112882215226130e-01,5.018265362061874457e-01,5.044787776026499193e-01,4.778431266250343090e-01,1.332028328054136457e-01,3.501714716482191569e-01,3.046762253877332016e-01,8.852484698379865097e-03,-4.691761152029651216e-02,-7.783174742714366046e-03,-3.530101689118619324e-01,-2.584394603457296213e-01,-3.963590680674696221e-01,-2.351573614307431170e-01,2.479983873203408518e-01,-1.951784795843051756e-01,3.478168297434042211e-01,1.320697857397887601e-02,3.423245469612992142e-01,-2.219824836658834677e-01,-4.234603838669432491e-02,2.984768165408350771e-01,9.473566240311320774e-02,-1.166815135606250609e-01,1.510840273013386026e-01,6.109297248261375685e-02,2.428862720197042246e-01,3.219623972719067861e-01,-3.193495759201198658e-01,1.573559147015795856e-01,3.236439568376499043e-01,-1.028129865850898328e-01,-5.352659094690155953e-03,-3.014443767973449262e-01,4.507439504039477129e-01,-4.729641852453349560e-01,4.442799469845380433e-01,-3.269328374131535986e-01,-6.866817413405215675e-02,4.855933897893882634e-01,3.970700305460939661e-01,-1.886995277035590501e-01,4.163991987345060375e-01,1.930897910916854962e-02,-2.070231120334641295e-01,4.575056886111178445e-01,3.918856544880521819e-01,-3.306274989665977659e-01,-4.565549071097126099e-02,4.577146803771173778e-01,1.865942120193007092e-01,4.359660389830154192e-02,2.165528095524231478e-02,2.651309809871797984e-01,1.075357551938461442e-01,8.950324175685121786e-03,-2.231600301877287584e-01,3.070859231973767089e-01,-4.252398485050535304e-01,-3.608435854245652386e-01,2.064214386352209996e-01,-2.973539898727739494e-01,1.022445347821759470e-01,3.123190914175100752e-01,7.177912569059718972e-02,-2.822871331422784902e-01,3.828921835611940327e-01,-3.208928933830163532e-01,-8.213737285431142732e-02,-1.842369844518161326e-01,1.554402204830562240e-01,6.692400001056414416e-02,2.424730081233810453e-01,2.428541626814632592e-01,-2.443427602547894317e-01,-3.370537720108334745e-01,2.550450576127907265e-01,3.902272675940220981e-01,-3.780484300281127252e-01,-2.245978149196426743e-01,-1.377680934012734393e-01,5.116138989359008127e-01,2.465819601053088062e-01,-2.987104714928994209e-01,-2.628248225013631867e-01,1.223485626589050496e-01,-2.836755494150393631e-01,-2.392948523344944900e-01,2.479061748558750167e-01,1.733584504445352947e-01,-2.723441274456693262e-01,-9.405021897042184498e-02,-1.740855240805599391e-01,-2.669531465454158536e-01,1.372284686356663730e-01,-4.512794439312948214e-01,-5.038142832414400640e-01,5.294034246129739746e-02,-4.778191971131611621e-02,4.761947004875220490e-01,3.365331032259213373e-01,-3.881397299812217594e-01,-3.181677206413708325e-01,-5.363691215583011873e-01,5.160345687635884415e-01,-4.946411731291563418e-01,-6.690771327354255726e-02,-2.967716774874213370e-01,-4.436046131568751605e-01,-4.933412638198073075e-02,-2.540294633555606474e-01,3.814225423430376849e-01,-1.735513571339520056e-01,3.052409400279434970e-01,4.461304628123702321e-01,-4.822749850975943109e-01,-1.416257615651311530e-01,9.125719434683721154e-02,-1.060658169267268136e-01,-1.664971039916284803e-03,1.452362657195480633e-01,3.702740406192172040e-01,2.621484359139834019e-01,-2.079457859734369918e-01,-1.097311705951151822e-01,7.910613456678802780e-02,-3.657674960583579549e-01,1.811441093446645167e-01,1.204350099242689071e-01,-2.069374521582687532e-01,-2.676005361632056156e-01,-9.061338375640233533e-02,-4.565677514228560496e-01,-1.074262091087345022e-01,-1.292917873326841771e-01,-1.448027865682815496e-01,-1.444803644798696995e-01,-4.743495904536904062e-02,2.308847085321008297e-01,4.300621859797686963e-01,-7.353219898301899260e-03,2.011393513235909813e-01,4.831026711904656823e-01,-4.887271567322887256e-01,3.259535306833171164e-01,4.186267544414771780e-01,-3.013861895708980221e-01,3.550920523335044932e-01,4.374660966607937240e-01,-3.491975886362961301e-01,2.913596495092626859e-01,-8.992412907233278407e-02,-9.391636725525631668e-02,2.673566169839414197e-01,2.651844648507111768e-01,-2.576269705594593229e-01,3.032202044623813486e-01,3.186976986708007775e-01,2.545504541618907601e-01,-3.655350497254658548e-01,-1.982204912581269352e-01,-8.313444965930644193e-02,-1.543451099999165743e-01,-1.335873046317387347e-01,-1.986190679196907505e-01,3.936467481315314432e-02,4.433416805667354521e-01,-5.019073836847736114e-01,-3.997245379064242599e-01,-2.505386216635153152e-01,1.589788813473811957e-01,1.616401265600797832e-01,-6.542198012131317242e-02,-4.362494768986499571e-01,-1.983412452446029761e-01,-1.620380735728323973e-01,-6.412110839300423637e-02,-1.524301969425579002e-02,4.087138973302514300e-01,2.481647668752114400e-01,2.548461483777589298e-01,-4.563190461834292222e-01,2.989130734766080044e-01,5.443966064463862803e-02,2.443660714621643248e-01,-1.265279987838435760e-01,1.785990216370527406e-01,2.670755022555159064e-01,3.002469561239631823e-01,2.623896523382856505e-01,-7.113035243728918489e-02,2.671769330247869001e-01,-4.652921109812991479e-02,4.762283939203462158e-01,-2.301225896299779750e-01,-2.315021725239663208e-02,5.023051987071319724e-02,2.595240726314993474e-01,5.281608841829126266e-01,9.748421800616030586e-02,2.314526979827225828e-01,-3.232330492832444779e-01,-2.555379152109395896e-02,-2.938295430774633121e-02,2.339255582228775832e-01,3.629305660338235096e-01,-2.703187393405262831e-02,-5.236356805100338824e-02,-2.645614484826506185e-01,4.677933493646613816e-01,3.356885741890047736e-01,-3.267586996162105684e-01,-1.581370838199777640e-01,3.970987363399317016e-01,4.364534105229814220e-01,-1.341781259433813822e-01,1.465325132714597745e-01,3.956863391564022780e-01,1.799108188161933353e-01,4.642727405420529752e-01,2.337200032740834599e-01,2.439068159389246315e-01,-3.660246351443121465e-02,3.294666350029001323e-01,-3.483550471212627508e-01,-5.583177158601614759e-02,-1.284912213194062958e-01,-7.522277786897976770e-02,2.680591864372653399e-01,-2.917778097510770885e-01,2.669339171389231713e-01,-3.881606378161393534e-01,-3.742863821131900415e-01,-5.224307430388864387e-02,-4.542921769262169840e-01,2.443386341380456850e-01,9.912816040652563943e-02,-1.709211714916111791e-01,5.729503045418772589e-02,5.423524221537451284e-01,2.361538700222517440e-01,-3.723175640388591279e-01,-3.372428604054300560e-01,-1.351449342380374175e-01,4.874889090284596077e-02,1.974631043620780901e-01,2.239056468964108204e-01,4.837255691011279612e-01,2.390303438238517153e-01,2.049278094053321453e-01,3.769853288881199194e-01,3.327346968111584147e-01,2.556809483628936230e-01,-4.396963205428165433e-01,-4.023533543342255880e-01,1.698668849587200436e-01,-6.869340647071005279e-02,3.395581727882058254e-01,-7.668114586575543179e-02,-3.477334658781448540e-01,-2.056223671636600303e-01,2.357367472371826173e-02,-1.776565010499881192e-01,4.152773017827375845e-01,-1.011862043290261224e-03,-3.047235981808207872e-01,-3.959247935268629393e-01,3.213764027724824168e-01,3.814487800011858720e-01,-6.017101131949290777e-02,1.679147508418086521e-01,-4.598919786374159879e-01,-5.960939954816670688e-02,1.628632899340421158e-01,3.470351791917097861e-01,-1.192402558538391694e-01,-2.022503067736483306e-01,1.612269624674748658e-01,2.159991668271531440e-01,-1.983534293873888688e-01,-3.742761705002385919e-01,-1.204500357946794026e-01,-2.992843148594161451e-01,-4.270251125139904597e-02,-3.031080653476614928e-01,2.893434264276111278e-01,2.661815571493086896e-01,2.823004903303323321e-01,1.805857183312229164e-01,1.501525634115103425e-01,9.314444468204697083e-03,2.237854953181741546e-01,3.771676307428036279e-01,4.472397931729300558e-01,-2.186608078312612391e-01,-4.402882616445061847e-01,-2.846432085483979191e-01,-3.611287599023005890e-01,-3.714596278705550314e-01,-1.794541931872794538e-01,-1.464175779343959705e-01,1.690129562569683275e-01,2.372571497111877203e-01,1.383425236021425253e-01,-4.034276800122925111e-01,-8.710958541009802825e-02,9.857198643513070263e-03,-4.440823256716850409e-01,-2.342314823740535568e-01,-3.799171865097630274e-01,-1.920548511995006924e-01,1.925998516541839733e-01,3.266397112178600626e-01,2.944230667946221014e-01,4.553817995629801940e-01,-1.221327383388750160e-01,3.986281629124737574e-02,-1.570540704068953131e-01,-4.603293874268607477e-01,-3.102238697179986460e-01,-3.063661744206213067e-01,1.757862261172659368e-01,-2.792678627567704019e-01,2.714349229904945981e-01,3.297674198421507441e-01,-2.505833862692417591e-01,3.296672715861031500e-01,-2.932543425947125026e-01,-2.043896779258786711e-01,2.140489080125037857e-01,-1.464890569077587357e-01,5.204290889912378537e-01,2.150500033424068702e-01,-2.950677469773040767e-02,2.304354748947030906e-01,3.564530599804838218e-02,-3.355341918645842747e-01,-1.682582962231676249e-01,-2.506184760125359512e-01,-1.861232529671364485e-04,-4.180800989563139836e-01,-9.231980666631377230e-02,-2.195758559653264719e-01,7.147011084839574591e-02,3.035852270658471741e-01,7.316987511573673497e-02,-3.420506858107093540e-01,-2.943346820859208957e-01,3.486319389989412819e-05,4.808882298444913661e-01,-1.703684556527358396e-01,-3.559004496553408448e-01,-2.481844203194519816e-01,-3.515760513561605460e-01,1.552757112486629898e-01,4.108137114972897352e-01,-4.596658203296974943e-01,3.731053491432224645e-01,4.187512947922891193e-01,-4.091923023747761623e-01,3.844663745031507984e-01,4.467396537577320026e-01,-1.111688765840318227e-01,-3.613372361445858494e-01,4.790684656056992674e-01,-1.386918063023936942e-01,-6.366606737177682093e-03,-4.529852313892555604e-01,-4.731913666096287940e-01,-3.956595335692574267e-01,-4.627816529812600055e-01,4.908827219407087550e-01,3.644238539127144794e-01,-4.099930429712332347e-01,-3.217147181068397699e-01,3.075929869892820578e-01,-8.193028158552538576e-02,3.993774360179902505e-02,-9.323445603876238941e-02,2.679158778327422885e-01,-9.667260223768986416e-03,-9.087002904619739807e-02,1.685390581517262898e-01,3.890907905356235097e-01,2.258819662899616831e-01,-2.202079961233861516e-01,-3.966941441079476216e-01,2.345969407197251166e-01,1.441624685957256236e-01,1.047623143678858282e-01,3.142519003831985985e-02,-1.143130579110758355e-01,-3.614171524397862822e-01,1.497935562359878348e-01,-2.051196071492315531e-01,-2.731274640598083669e-01,-2.337077136203492833e-01,-4.648178639477237861e-01,-1.167412008542301205e-01,4.926611138955553915e-01,-3.723520313027895434e-01,1.053528390706506279e-01,-9.867951476845518433e-02,4.208000915076064337e-03,-1.985315463400681713e-01,4.062054729135847753e-01,-2.792737687727277485e-01,1.079491663522124389e-01,3.264073672810183790e-01,3.970224530591759393e-01,1.104216502487764383e-03,2.385391461466122853e-01,-1.946310298329493871e-01,-3.214344745841709594e-01,9.271322868870650324e-02,2.292371136775290807e-01,5.292190795626771499e-02,-5.551941084830473994e-01,-1.657679874665343167e-01,1.131267376531273211e-01,-4.668736666535560076e-01,-4.293887159762681538e-01,-4.675513657664462364e-01,3.424074323389585950e-01,4.914332818112277512e-01,4.747238641842660978e-01,-3.489625989997408584e-01,-5.542564705801545921e-01,1.695288077152334039e-01,-2.015793223366847339e-02,-1.242366777118578298e-02,-2.762211280414351156e-01,2.594140331716390802e-01,1.798626285727844831e-01,-1.975867768443048400e-01,-2.112942611623007116e-01,3.430517305627056035e-01,-3.182980246413850012e-03,-2.482719186097728237e-01,-2.504091036620134103e-01,-1.592173127407844335e-01,1.703721963461130584e-01,4.657235869747806262e-02,2.467561180950340605e-01,-2.314368954109108367e-01,-4.034383337648286827e-01,-1.635661692984126669e-01,5.223034067703955508e-01,4.036004452459213687e-01,5.181480915588166924e-01,2.994401133749417521e-01,3.021007617671630507e-01,8.850210512706392640e-02,-7.907060315126894501e-02,-2.649898399480370148e-02,-4.853446715850633364e-01,6.323559830273192683e-02,4.054303129103122849e-01,-8.421439849336920247e-02,-2.215970926638114735e-01,-3.361220068774291303e-02,1.307573366235895707e-01,-9.965350680915889547e-02,-3.150063922323726451e-01,1.577689988560888878e-02,-1.521709425537817739e-01,-1.266456538937758003e-01,-3.794095117503000214e-01,-2.723318703941551844e-01,-1.943832390515578268e-01,-4.457532618258501222e-01,1.053689714232605573e-01,-4.196723729915641798e-01,-2.802965278102708679e-01,3.010713930591892296e-01,-2.365244974705957848e-01,1.852279252227660433e-01,1.807425251518884890e-01,2.028046706939687360e-01,-1.220725589191029026e-01,-4.556170699155090431e-01,-1.023810686386668889e-01,3.350448068696990078e-02,3.097391660027353777e-01,-2.415095331870614759e-01,-2.723490816372802215e-01,2.019355939165715444e-02,-4.877668976552365088e-01,-3.296266562435661296e-01,4.478078873566508911e-01,-2.780385442250600525e-02,3.519890565673700067e-01,-3.129330088203493565e-01,-1.438884406026791629e-01,4.071610645428212494e-01,-3.779913665934918621e-01,2.529321897311140321e-01,-4.729141138034420599e-01,-4.975544577623153830e-01,-9.881237120453094727e-03,1.523764751447228283e-01,-4.376779302414463557e-01,-7.409127817397381799e-02,-3.980336276861562994e-01,3.199837142739139217e-01,-3.692208802823587765e-01,3.134923334130183120e-02,2.392127814736375591e-01,-2.244744500064612125e-01,3.641456129681824860e-01,2.315486938064762867e-03,-2.187036452486891824e-01,-1.869802711331132183e-01,-3.865283889791682470e-01,-1.888305188716825067e-01,-2.325850278360172552e-01,-2.170140492661604970e-01,2.182728821120479001e-01,-1.887675080824413876e-01,-2.182991157502370549e-01,-1.248821787058756877e-01,8.239962224313730765e-02,4.071195885288005356e-01,2.809767477383616208e-01,2.369141182227621767e-01,-2.655629278694209700e-03,1.303857604923624181e-01,1.794726026142936526e-01,-4.062699264337551464e-01,4.004257714500769616e-02,8.050331022451016894e-02,-2.447318885851104964e-01,3.755367205607345604e-01,-3.305029851266757523e-01,2.975124677144677099e-01,-7.491556801584002556e-02,-5.383447992203613808e-01
